<?xml version="1.0"?>
<opencv_storage>
<birds1 type_id="opencv-ml-svm">
  <svm_type>C_SVC</svm_type>
  <kernel><type>RBF</type>
    <gamma>5.0624999999999998e-001</gamma></kernel>
  <C>3.1250000000000000e+002</C>
  <term_criteria><epsilon>2.2204460492503131e-016</epsilon>
    <iterations>100</iterations></term_criteria>
  <var_all>100</var_all>
  <var_count>100</var_count>
  <class_count>3</class_count>
  <class_labels type_id="opencv-matrix">
    <rows>1</rows>
    <cols>3</cols>
    <dt>i</dt>
    <data>
      1 2 3</data></class_labels>
  <sv_total>13</sv_total>
  <support_vectors>
    <_>
      5.17687644e-004 5.17687644e-004 1.20793786e-002 6.90250192e-004
      4.83175134e-003 1.20793784e-003 4.71095741e-002 3.27868853e-003
      2.07075058e-003 2.20880061e-002 2.50215698e-002 3.62381339e-003
      4.27955128e-002 1.89818803e-003 0. 5.86712640e-003 6.72993949e-003
      7.42018968e-003 2.07075058e-003 1.72562548e-004 3.45125096e-004
      1.10440031e-002 5.17687644e-004 4.31406358e-003 1.03537533e-002
      3.07161342e-002 8.62812740e-004 8.62812717e-003 2.27782559e-002 0.
      3.45125096e-004 8.28300230e-003 6.90250192e-004 5.34943910e-003
      3.77911963e-002 3.53753231e-002 6.38481416e-003 3.79637592e-002
      4.48662601e-003 4.57290746e-002 5.45297638e-002 0. 1.72562548e-003
      3.45125096e-004 2.58843834e-003 7.24762678e-003 3.10612586e-003
      3.79637606e-003 1.20793784e-003 3.10612586e-003 3.36496979e-002
      3.45125096e-004 5.34943910e-003 1.94995683e-002 3.45125096e-004
      9.31837782e-003 1.89818803e-003 2.27782559e-002 1.72562548e-003
      5.17687644e-004 4.14150115e-003 4.14150134e-002 8.62812740e-004
      3.45125096e-004 1.72562548e-004 2.38136314e-002 1.89818803e-003
      3.62381339e-003 8.62812740e-004 1.03537529e-003 3.62381339e-003
      2.24331301e-003 1.72562548e-004 2.76100077e-003 5.17687644e-004
      1.20793784e-003 5.17687644e-004 1.20793784e-003 2.58843834e-003
      2.41587567e-003 3.45125096e-004 2.07075058e-003 2.60569453e-002
      2.93356329e-002 8.62812740e-004 5.45297638e-002 2.24331301e-003
      1.72562548e-003 2.41587567e-003 5.86712640e-003 2.76100077e-003
      3.55478860e-002 2.24331301e-003 1.79465041e-002 2.58843834e-003
      8.62812740e-004 1.55306293e-003 1.72562548e-004 4.67644520e-002
      3.36496979e-002</_>
    <_>
      1.77935942e-003 8.00711755e-003 1.33451959e-002 1.33451959e-002
      9.78647638e-003 3.55871883e-003 1.24555156e-002 4.44839848e-003
      1.06761567e-002 4.44839848e-003 8.89679696e-003 2.49110311e-002
      1.77935942e-003 1.42348753e-002 3.55871883e-003 7.11743766e-003
      2.66903918e-003 8.00711755e-003 1.77935942e-003 2.04626340e-002
      6.22775778e-003 2.66903918e-003 1.42348753e-002 1.15658361e-002
      1.51245547e-002 1.24555156e-002 4.44839848e-003 6.22775778e-003
      4.44839848e-003 4.44839848e-003 1.33451959e-002 2.49110311e-002
      5.33807836e-003 2.04626340e-002 4.35943045e-002 2.66903918e-003
      3.55871883e-003 5.33807836e-003 1.51245547e-002 4.44839848e-003
      5.33807836e-003 4.44839848e-003 1.42348753e-002 1.77935942e-003
      1.06761567e-002 6.22775778e-003 1.15658361e-002 8.00711755e-003
      1.06761567e-002 1.24555156e-002 3.55871883e-003 3.91459055e-002
      1.77935942e-003 8.89679696e-003 1.15658361e-002 8.00711755e-003
      3.55871883e-003 4.44839848e-003 1.06761567e-002 6.22775778e-003
      8.00711755e-003 1.24555156e-002 1.77935942e-003 4.44839848e-003
      8.89679708e-004 7.11743766e-003 5.33807836e-003 1.33451959e-002
      6.22775778e-003 3.55871883e-003 3.55871883e-003 8.89679696e-003 0.
      8.00711755e-003 0. 8.89679696e-003 7.11743766e-003 1.60142351e-002
      3.55871879e-002 4.44839848e-003 1.51245547e-002 8.00711755e-003
      2.84697507e-002 4.27046269e-002 5.33807836e-003 9.78647638e-003
      6.22775778e-003 8.89679708e-004 5.33807836e-003 8.89679696e-003
      5.33807836e-003 1.06761567e-002 4.18149456e-002 2.13523135e-002
      1.69039145e-002 1.06761567e-002 1.51245547e-002 6.22775778e-003
      1.77935942e-003 4.44839848e-003</_>
    <_>
      7.56143651e-004 1.13421548e-002 1.17202261e-002 8.69565178e-003
      1.55009450e-002 4.91493382e-003 2.26843101e-003 1.24763707e-002
      1.51228728e-002 8.69565178e-003 1.73913036e-002 7.93950818e-003
      4.53686202e-003 4.15879022e-003 6.80529280e-003 6.04914920e-003
      1.66351609e-002 4.91493382e-003 1.73913036e-002 6.80529280e-003
      6.04914920e-003 3.44045348e-002 9.82986763e-003 6.42722100e-003
      1.47448014e-002 6.80529280e-003 7.18336459e-003 7.93950818e-003
      4.91493382e-003 7.18336459e-003 6.42722100e-003 2.60869563e-002
      7.56143639e-003 4.27221172e-002 3.78071819e-003 1.51228730e-003
      2.45746691e-002 1.13421550e-003 3.70510407e-002 3.02457460e-003
      2.26843101e-003 1.51228730e-003 1.13421548e-002 1.13421550e-003
      1.32325143e-002 8.69565178e-003 1.47448014e-002 2.38185246e-002
      4.15879022e-003 1.51228728e-002 6.42722100e-003 2.04158779e-002
      2.72211712e-002 1.73913036e-002 8.31758045e-003 1.24763707e-002
      1.05860112e-002 8.69565178e-003 4.91493382e-003 3.78071819e-003
      9.82986763e-003 2.64650281e-003 4.15879022e-003 3.40264640e-003
      2.64650281e-003 4.91493382e-003 1.20982984e-002 4.91493382e-003
      9.82986763e-003 1.77693758e-002 1.09640826e-002 2.64650281e-003
      1.20982984e-002 4.08317558e-002 4.15879022e-003 5.67107741e-003
      1.32325143e-002 5.29300561e-003 3.40264640e-003 1.24763707e-002
      5.29300561e-003 2.64650281e-003 1.02079390e-002 4.91493382e-003
      3.40264640e-003 3.02457460e-003 1.32325143e-002 9.45179537e-003
      1.09640826e-002 1.58790164e-002 1.17202261e-002 1.28544420e-002
      8.69565178e-003 3.02457460e-003 9.45179537e-003 1.47448014e-002
      8.31758045e-003 6.42722100e-003 2.26843101e-003 7.56143651e-004</_>
    <_>
      0. 1.24481339e-002 0. 3.31950225e-002 0. 8.29875562e-003 0.
      2.07468886e-002 1.65975112e-002 0. 0. 2.48962678e-002 0.
      2.90456451e-002 4.14937781e-003 0. 8.29875562e-003 0.
      4.14937781e-003 2.90456451e-002 8.29875562e-003 4.14937781e-003 0.
      1.24481339e-002 1.24481339e-002 0. 1.24481339e-002 4.14937781e-003
      0. 0. 2.90456451e-002 2.07468886e-002 4.14937781e-003
      1.24481339e-002 0. 0. 8.29875562e-003 0. 8.29875562e-003 0. 0.
      1.24481339e-002 2.48962678e-002 2.07468886e-002 2.90456451e-002 0.
      4.14937781e-003 0. 3.31950225e-002 2.07468886e-002 0.
      7.88381770e-002 0. 0. 2.07468886e-002 1.24481339e-002
      2.07468886e-002 8.29875562e-003 8.29875562e-003 8.29875562e-003
      8.29875562e-003 4.14937781e-003 4.14937781e-003 2.48962678e-002
      4.14937781e-003 1.24481339e-002 1.65975112e-002 0. 1.65975112e-002
      2.07468886e-002 4.14937781e-003 1.65975112e-002 1.65975112e-002 0.
      4.14937781e-003 8.29875562e-003 8.29875562e-003 2.48962678e-002 0.
      4.14937781e-003 6.63900450e-002 2.07468886e-002 0. 0.
      1.24481339e-002 0. 0. 8.29875562e-003 4.14937781e-003
      4.14937781e-003 8.29875562e-003 0. 2.07468886e-002 0.
      8.29875562e-003 8.29875562e-003 0. 8.29875562e-003 0. 0.</_>
    <_>
      0. 6.07164530e-003 7.28597399e-003 8.50030314e-003 7.89313857e-003
      1.57862771e-002 1.82149350e-003 8.50030314e-003 1.70006063e-002
      5.46448072e-003 3.03582265e-003 1.76077709e-002 6.07164518e-004
      1.94292646e-002 6.07164518e-004 4.85731615e-003 4.25015157e-003
      1.21432906e-002 6.07164530e-003 1.70006063e-002 2.18579229e-002
      3.03582265e-003 6.07164530e-003 1.39647843e-002 7.28597399e-003
      4.25015157e-003 9.71463230e-003 0. 3.03582265e-003 6.07164530e-003
      3.70370373e-002 8.50030314e-003 1.09289614e-002 4.25015157e-003
      3.64298699e-003 3.64298699e-003 9.71463230e-003 6.07164518e-004
      4.25015157e-003 1.82149350e-003 0. 1.51791126e-002 2.00364292e-002
      1.82149354e-002 4.25015157e-003 9.10746772e-003 7.28597399e-003
      8.50030314e-003 1.15361260e-002 1.51791126e-002 6.07164530e-003
      4.25015166e-002 4.25015157e-003 0. 1.51791126e-002 1.21432906e-002
      1.33576198e-002 1.51791126e-002 7.28597399e-003 1.70006063e-002
      7.89313857e-003 6.07164518e-004 1.39647843e-002 1.09289614e-002
      5.46448072e-003 7.28597399e-003 1.03217969e-002 9.71463230e-003
      9.71463230e-003 1.03217969e-002 1.33576198e-002 1.76077709e-002
      1.09289614e-002 9.10746772e-003 3.09653897e-002 1.57862771e-002
      1.21432906e-002 1.33576198e-002 2.06435937e-002 5.46448072e-003
      2.91438960e-002 2.67152395e-002 4.25015157e-003 4.85731615e-003
      7.28597399e-003 0. 5.46448072e-003 8.50030314e-003 6.67880988e-003
      4.85731615e-003 4.85731615e-003 0. 1.51791126e-002 6.67880988e-003
      9.10746772e-003 1.88221000e-002 2.24650875e-002 2.00364292e-002
      1.21432904e-003 2.42865807e-003</_>
    <_>
      0. 1.03926100e-002 1.61662810e-002 4.61893762e-003 1.61662810e-002
      4.61893762e-003 2.30946881e-003 1.15473438e-002 9.23787523e-003
      8.08314048e-003 1.84757505e-002 1.96304843e-002 1.61662810e-002
      3.46420333e-003 1.15473440e-003 1.96304843e-002 1.50115471e-002
      5.77367190e-003 1.50115471e-002 9.23787523e-003 1.38568133e-002
      1.50115471e-002 1.27020786e-002 1.15473438e-002 2.07852200e-002
      3.46420333e-003 9.23787523e-003 1.84757505e-002 1.15473440e-003
      3.46420333e-003 8.08314048e-003 8.08314048e-003 3.46420333e-003
      9.23787523e-003 4.61893762e-003 1.15473440e-003 6.92840666e-003 0.
      3.57967652e-002 3.46420333e-003 4.61893762e-003 0. 1.96304843e-002
      1.15473440e-003 1.73210166e-002 1.61662810e-002 4.61893762e-003
      9.23787523e-003 1.50115471e-002 9.23787523e-003 6.92840666e-003
      5.77367190e-003 1.73210166e-002 1.27020786e-002 2.30946881e-003
      1.61662810e-002 4.61893762e-003 5.77367190e-003 8.08314048e-003
      4.61893762e-003 1.50115471e-002 1.15473440e-003 5.77367190e-003
      8.08314048e-003 8.08314048e-003 5.77367190e-003 2.07852200e-002
      1.73210166e-002 6.92840666e-003 1.27020786e-002 3.46420333e-003
      5.77367190e-003 5.77367190e-003 1.96304843e-002 5.77367190e-003
      1.15473438e-002 1.15473438e-002 4.61893762e-003 1.38568133e-002
      2.42494233e-002 2.30946881e-003 1.38568133e-002 8.08314048e-003
      1.15473440e-003 9.23787523e-003 1.15473440e-003 3.46420333e-002
      1.50115471e-002 2.65588909e-002 1.50115471e-002 1.15473438e-002
      1.03926100e-002 1.03926100e-002 4.61893762e-003 2.19399538e-002
      5.77367190e-003 8.08314048e-003 5.77367190e-003 4.61893762e-003
      3.46420333e-003</_>
    <_>
      7.99999980e-004 1.04000000e-002 3.99999972e-003 8.79999995e-003
      7.19999988e-003 1.84000004e-002 0. 8.79999995e-003 2.47999988e-002
      3.99999972e-003 8.79999995e-003 1.91999990e-002 7.99999980e-004
      1.91999990e-002 1.59999996e-003 7.99999980e-004 4.79999976e-003
      3.19999978e-002 7.19999988e-003 2.08000001e-002 1.59999989e-002
      3.19999992e-003 9.59999952e-003 1.27999997e-002 1.04000000e-002
      2.39999988e-003 1.59999989e-002 3.19999992e-003 1.59999996e-003
      4.79999976e-003 2.79999990e-002 8.79999995e-003 1.51999993e-002
      3.99999972e-003 1.59999996e-003 3.19999992e-003 3.99999972e-003 0.
      2.39999988e-003 7.99999980e-004 0. 1.20000001e-002 1.04000000e-002
      1.59999989e-002 3.99999972e-003 0. 7.19999988e-003 9.59999952e-003
      1.91999990e-002 1.35999992e-002 2.39999988e-003 2.63999999e-002
      1.59999996e-003 0. 1.43999998e-002 1.35999992e-002 1.35999992e-002
      8.79999995e-003 6.39999984e-003 2.71999985e-002 4.79999976e-003
      7.99999980e-004 1.67999994e-002 1.84000004e-002 4.79999976e-003
      8.79999995e-003 4.79999976e-003 8.79999995e-003 1.20000001e-002
      1.20000001e-002 8.79999995e-003 2.55999994e-002 1.43999998e-002
      1.11999996e-002 1.43999998e-002 1.20000001e-002 8.79999995e-003
      1.04000000e-002 1.43999998e-002 7.19999988e-003 3.59999985e-002
      2.47999988e-002 4.79999976e-003 8.79999995e-003 1.59999989e-002
      1.59999996e-003 7.19999988e-003 1.20000001e-002 4.79999976e-003
      7.99999980e-004 1.59999996e-003 1.59999996e-003 1.27999997e-002
      1.51999993e-002 6.39999984e-003 1.84000004e-002 2.96000000e-002
      1.91999990e-002 1.59999996e-003 7.99999980e-004</_>
    <_>
      2.77970824e-003 9.03405156e-003 8.33912473e-003 1.66782495e-002
      8.33912473e-003 9.72897932e-003 6.94927061e-004 1.32036144e-002
      2.57123020e-002 6.94927061e-004 6.94927061e-004 1.45934680e-002
      1.38985412e-003 1.94579586e-002 2.08478118e-003 7.64419790e-003 0.
      2.08478118e-003 1.25086866e-002 2.43224464e-002 2.36275196e-002
      2.08478118e-003 1.04239061e-002 1.25086866e-002 6.94927061e-003
      6.94927061e-004 8.33912473e-003 4.16956237e-003 0. 6.94927061e-003
      3.19666453e-002 1.80681031e-002 1.32036144e-002 2.08478118e-003
      1.38985412e-003 6.94927061e-004 6.94927061e-003 0. 4.86448966e-003
      0. 0. 1.11188330e-002 4.10006978e-002 4.86448966e-003
      6.25434332e-003 2.77970824e-003 1.52883958e-002 4.16956237e-003
      2.29325928e-002 2.43224464e-002 0. 3.96108441e-002 8.33912473e-003
      0. 1.87630299e-002 9.72897932e-003 1.25086866e-002 0.
      6.94927061e-003 1.80681031e-002 8.33912473e-003 0. 1.32036144e-002
      2.36275196e-002 2.77970824e-003 1.38985412e-003 6.94927061e-003
      1.04239061e-002 1.32036144e-002 2.22376660e-002 1.11188330e-002
      1.59833226e-002 9.72897932e-003 1.73731763e-002 2.08478123e-002
      1.73731763e-002 1.87630299e-002 2.08478123e-002 9.03405156e-003
      4.86448966e-003 2.15427391e-002 1.11188330e-002 2.08478118e-003
      1.38985412e-003 2.08478123e-002 0. 5.55941649e-003 1.04239061e-002
      1.11188330e-002 1.18137598e-002 3.47463530e-003 1.38985412e-003
      7.64419790e-003 3.47463530e-003 7.64419790e-003 1.66782495e-002
      2.22376660e-002 1.18137598e-002 0. 0.</_>
    <_>
      0. 5.17538842e-003 4.19781506e-002 1.15008634e-002 2.18516402e-002
      6.32547447e-003 6.32547447e-003 1.55261653e-002 8.05060379e-003
      1.55261653e-002 4.02530190e-003 6.90051774e-003 6.32547447e-003
      5.75043168e-003 4.02530190e-003 5.11788391e-002 8.62564705e-003
      2.30017258e-003 1.95514672e-002 7.47556100e-003 4.02530190e-003
      6.32547447e-003 1.20759057e-002 2.30017258e-003 3.45025887e-003
      1.49511220e-002 5.75043168e-003 1.09258201e-002 1.61012076e-002
      6.90051774e-003 5.17538842e-003 2.18516402e-002 4.60034516e-003
      1.55261653e-002 1.72512943e-003 1.72512943e-003 1.84013806e-002
      4.02530190e-003 5.75043168e-003 5.17538842e-003 2.30017258e-003
      5.75043168e-003 5.75043168e-003 4.02530190e-003 2.30017267e-002
      5.75043168e-003 6.90051774e-003 1.66762508e-002 5.75043168e-003
      6.32547447e-003 2.70270277e-002 4.25531939e-002 2.18516402e-002
      3.45025887e-003 6.32547447e-003 5.17538842e-003 1.15008629e-003
      7.47556100e-003 7.47556100e-003 6.32547447e-003 4.02530190e-003
      1.15008629e-003 3.45025887e-003 8.62564705e-003 4.48533669e-002 0.
      1.20759057e-002 9.77573358e-003 1.26509489e-002 1.89764239e-002
      1.55261653e-002 1.72512943e-003 6.90051774e-003 1.20759057e-002
      2.87521584e-003 3.45025887e-003 4.60034516e-003 1.78263374e-002
      1.15008629e-003 9.20069031e-003 3.45025887e-003 8.05060379e-003
      5.17538842e-003 4.02530190e-003 1.20759057e-002 4.60034516e-003
      1.38010355e-002 2.47268546e-002 1.72512941e-002 3.50776315e-002
      1.09258201e-002 4.60034516e-003 1.15008629e-003 1.72512943e-003
      9.77573358e-003 6.90051774e-003 3.45025887e-003 4.02530190e-003
      6.32547447e-003 5.75043168e-003</_>
    <_>
      0. 1.52671756e-002 3.56234098e-003 3.00254449e-002 3.56234098e-003
      9.66921076e-003 0. 4.58015269e-003 1.47582702e-002 3.05343512e-003
      8.14249367e-003 2.08651405e-002 2.54452927e-003 1.78117044e-002
      1.52671756e-003 0. 2.03562342e-003 4.07124683e-003 7.63358781e-003
      3.71501260e-002 1.93384215e-002 4.58015269e-003 7.63358781e-003
      1.22137405e-002 5.08905854e-003 1.52671756e-003 1.27226468e-002
      5.08905854e-003 3.05343512e-003 8.14249367e-003 5.08905873e-002
      1.57760810e-002 1.32315522e-002 1.62849873e-002 0. 5.08905854e-004
      7.63358781e-003 0. 4.07124683e-003 1.01781171e-003 0.
      1.37404576e-002 1.17048342e-002 1.88295171e-002 9.66921076e-003
      4.07124683e-003 5.59796439e-003 5.59796439e-003 2.39185747e-002
      1.11959288e-002 2.03562342e-003 6.87022880e-002 4.58015269e-003
      4.58015269e-003 1.83206107e-002 5.08905854e-003 7.12468196e-003
      3.56234098e-003 1.52671756e-002 2.59541981e-002 7.12468196e-003
      1.52671756e-003 5.59796439e-003 1.57760810e-002 6.10687025e-003
      6.61577610e-003 7.12468196e-003 5.08905854e-003 1.27226468e-002
      1.37404576e-002 2.03562342e-003 2.59541981e-002 2.18829513e-002
      1.32315522e-002 4.07124683e-003 1.32315522e-002 7.12468196e-003
      2.13740468e-002 9.66921076e-003 5.59796439e-003 2.03562342e-002
      2.79898215e-002 7.63358781e-003 3.05343512e-003 9.66921076e-003 0.
      3.56234098e-003 2.54452927e-003 4.07124683e-003 2.03562342e-003
      2.03562342e-003 8.14249367e-003 2.13740468e-002 5.08905854e-003
      8.14249367e-003 9.66921076e-003 9.16030537e-003 1.47582702e-002
      5.08905854e-004 0.</_>
    <_>
      9.25925933e-003 1.08024692e-002 1.54320989e-002 1.54320989e-002
      1.23456791e-002 1.69753097e-002 0. 1.08024692e-002 2.16049384e-002
      6.17283955e-003 0. 6.17283955e-003 4.62962966e-003 4.62962966e-003
      1.54320989e-003 2.62345672e-002 7.71604944e-003 1.23456791e-002
      1.54320989e-002 1.69753097e-002 9.25925933e-003 1.54320989e-003
      2.46913582e-002 1.08024692e-002 1.08024692e-002 1.54320989e-003
      9.25925933e-003 4.62962966e-003 3.08641978e-003 1.54320989e-003
      3.08641978e-002 0. 1.08024692e-002 1.54320989e-003 0.
      1.54320989e-003 1.08024692e-002 0. 2.46913582e-002 0. 0.
      2.46913582e-002 2.31481493e-002 2.77777780e-002 2.16049384e-002
      9.25925933e-003 7.71604944e-003 9.25925933e-003 2.00617276e-002
      9.25925933e-003 1.54320989e-003 3.24074067e-002 1.23456791e-002 0.
      3.08641978e-003 3.08641978e-003 6.17283955e-003 1.54320989e-003
      1.85185187e-002 1.54320989e-002 3.08641978e-003 0. 6.17283955e-003
      1.08024692e-002 1.38888890e-002 3.08641978e-003 2.31481493e-002
      6.17283955e-003 1.08024692e-002 2.00617276e-002 9.25925933e-003
      1.69753097e-002 1.54320989e-002 7.71604944e-003 3.08641978e-003
      1.08024692e-002 7.71604944e-003 1.85185187e-002 3.08641978e-003
      2.31481493e-002 1.38888890e-002 1.69753097e-002 1.54320989e-003
      1.54320989e-003 3.08641978e-003 0. 9.25925933e-003 1.08024692e-002
      2.16049384e-002 1.08024692e-002 4.62962966e-003 1.54320989e-003
      1.54320989e-002 6.17283955e-003 9.25925933e-003 2.16049384e-002
      1.38888890e-002 6.17283955e-003 0. 0.</_>
    <_>
      2.46305414e-003 2.70935949e-002 0. 1.47783253e-002 0.
      9.85221658e-003 2.46305414e-003 7.38916267e-003 0. 4.92610829e-003
      2.46305414e-003 1.23152705e-002 2.46305414e-003 1.97044332e-002
      2.46305414e-003 0. 1.23152705e-002 1.23152705e-002 1.23152705e-002
      1.72413792e-002 7.38916267e-003 1.47783253e-002 9.85221658e-003 0.
      4.92610829e-003 9.85221658e-003 7.38916267e-003 4.92610829e-003
      2.46305414e-003 9.85221658e-003 1.72413792e-002 3.94088663e-002
      7.38916267e-003 1.23152705e-002 2.46305414e-003 2.46305414e-003
      1.47783253e-002 0. 9.85221658e-003 2.46305414e-003 0.
      4.92610829e-003 2.21674871e-002 1.97044332e-002 2.46305410e-002
      7.38916267e-003 7.38916267e-003 4.92610829e-003 7.38916267e-003
      1.97044332e-002 1.47783253e-002 5.66502437e-002 4.92610829e-003
      1.47783253e-002 1.97044332e-002 1.23152705e-002 7.38916267e-003 0.
      9.85221658e-003 2.21674871e-002 7.38916267e-003 0. 2.46305414e-003
      2.46305410e-002 0. 4.92610829e-003 1.23152705e-002 7.38916267e-003
      2.70935949e-002 2.21674871e-002 9.85221658e-003 7.38916267e-003
      9.85221658e-003 9.85221658e-003 0. 2.21674871e-002 0.
      2.46305410e-002 1.23152705e-002 9.85221658e-003 1.47783253e-002
      1.23152705e-002 1.23152705e-002 7.38916267e-003 1.23152705e-002 0.
      7.38916267e-003 9.85221658e-003 2.46305414e-003 7.38916267e-003
      7.38916267e-003 4.92610829e-003 1.23152705e-002 1.47783253e-002
      1.47783253e-002 7.38916267e-003 0. 7.38916267e-003 4.92610829e-003
      2.46305414e-003</_>
    <_>
      5.87774301e-003 5.48589323e-003 7.44514074e-003 2.15517245e-002
      5.09404391e-003 4.31034481e-003 4.70219413e-003 1.56739808e-003
      8.62068962e-003 7.44514074e-003 1.29310340e-002 1.64576806e-002
      5.48589323e-003 1.25391847e-002 7.83699006e-003 3.91849503e-003
      7.05329143e-003 1.76332276e-002 1.88087765e-002 2.39028204e-002
      1.09717865e-002 3.52664571e-003 1.25391847e-002 3.91849503e-003
      9.01253894e-003 5.48589323e-003 1.21473353e-002 5.87774301e-003
      1.05799371e-002 1.37147335e-002 1.60658304e-002 9.79623757e-003
      8.62068962e-003 8.62068962e-003 9.40438826e-003 5.87774301e-003
      5.87774301e-003 3.91849503e-003 1.09717865e-002 6.66144164e-003
      4.70219413e-003 1.13636358e-002 2.58620679e-002 2.27272715e-002
      1.44984322e-002 3.13479616e-003 5.09404391e-003 7.83699006e-003
      1.64576806e-002 6.26959233e-003 6.26959233e-003 2.46865191e-002
      6.26959233e-003 1.60658304e-002 1.17554860e-002 9.01253894e-003
      7.05329143e-003 6.66144164e-003 1.33228833e-002 2.07680240e-002
      4.31034481e-003 3.13479616e-003 2.35109706e-003 1.33228833e-002
      7.83699006e-003 1.25391847e-002 1.44984322e-002 3.91849503e-003
      2.15517245e-002 1.95924751e-002 7.05329143e-003 8.22884031e-003
      9.01253894e-003 1.37147335e-002 1.56739808e-003 9.01253894e-003
      5.09404391e-003 1.76332276e-002 2.15517245e-002 1.56739801e-002
      7.83699006e-003 1.48902815e-002 1.64576806e-002 8.62068962e-003
      1.01880878e-002 3.91849503e-003 5.09404391e-003 5.87774301e-003
      9.01253894e-003 1.29310340e-002 6.26959233e-003 6.26959233e-003
      1.33228833e-002 9.79623757e-003 1.25391847e-002 1.33228833e-002
      4.70219413e-003 1.17554853e-003 6.26959233e-003 7.83699006e-003</_></support_vectors>
  <decision_functions>
    <_>
      <sv_count>9</sv_count>
      <rho>-8.9318643649033058e-001</rho>
      <alpha>
        3.0555236627652128e+001 1.2575421903193934e+002
        3.0415052962396709e+002 2.0437511346430580e+002
        -1.3549124624456073e+002 -2.1236555931921430e+002
        -8.2332918452352899e+001 -1.2097465522080245e+002
        -1.1367071951093405e+002</alpha>
      <index>
        0 1 2 3 4 5 6 7 8</index></_>
    <_>
      <sv_count>8</sv_count>
      <rho>-1.4584129801303447e+000</rho>
      <alpha>
        1.4189749377111690e+001 1.9528308932263903e+002
        2.2047396878991486e+002 3.1250000000000000e+002
        -1.9830716369498597e+002 -8.9227766845859492e+001
        -2.5982626867688208e+002 -1.9508560827193804e+002</alpha>
      <index>
        0 1 2 3 9 10 11 12</index></_>
    <_>
      <sv_count>9</sv_count>
      <rho>-8.5905235924481449e-001</rho>
      <alpha>
        1.8300205060594496e+002 1.5448820124719444e+002
        2.2892013030314337e+002 2.2435592949722133e+002
        1.6355002761583148e+002 -1.9706016123366675e+002
        -3.1250000000000000e+002 -1.3225617803566882e+002
        -3.1250000000000000e+002</alpha>
      <index>
        4 5 6 7 8 9 10 11 12</index></_></decision_functions></birds1>
</opencv_storage>
